5 0.389628 -0.093316
5.08639 0.403341 -0.0388459
5.17428 0.411872 -0.0329195
5.26369 0.407799 -0.0260269
5.35463 0.411249 -0.0317862
5.44716 0.413711 -0.0391323
5.54128 0.416541 -0.0259577
5.63702 0.413925 -0.0321018
5.73442 0.415445 -0.0325487
5.83351 0.417722 -0.0364819
5.9343 0.41493 -0.0389121
6.03684 0.413571 -0.0337629
6.14115 0.412527 -0.0370326
6.24726 0.414452 -0.0387107
6.3552 0.415852 -0.0484475
6.46501 0.409562 -0.0415442
6.57672 0.417289 -0.0400699
6.69036 0.412931 -0.0357828
6.80596 0.417645 -0.0328943
6.92356 0.415525 -0.0396608
7.04319 0.413313 -0.0531017
7.16489 0.416228 -0.0410286
7.28869 0.408993 -0.0495928
7.41462 0.415794 -0.0450709
7.54274 0.415818 -0.0390332
7.67307 0.416261 -0.0392171
7.80565 0.415258 -0.0510766
7.94052 0.413708 -0.0308584
8.07772 0.419093 -0.0369848
8.2173 0.41079 -0.0579348
8.35928 0.422001 -0.0475492
8.50372 0.413478 -0.0450374
8.65065 0.41392 -0.0559266
8.80012 0.413657 -0.0482551
8.95218 0.431335 -0.0651236
9.10686 0.402038 -0.0126808
9.26422 0.400032 -0.0225259
9.42429 0.40735 -0.0124165
9.58713 0.44188 -0.0135842
9.75278 0.384396 0.0301679
9.9213 0.421736 -0.0657092
10.0927 0.3988 -0.0471616
10.2671 0.415157 -0.0881256
10.4445 0.424111 -0.0613937
10.625 0.42054 -0.0528477
10.8086 0.399658 -0.0199915
10.9953 0.417933 -0.0935842
11.1853 0.405027 -0.00591738
11.3786 0.397116 -0.0161186
11.5752 0.430795 -0.0875418
11.7752 0.405855 -0.0861428
11.9787 0.384805 0.0177746
12.1856 0.376977 -0.177845
12.3962 0.404066 -0.114922
12.6104 0.426333 -0.040904
12.8283 0.411784 -0.133465
13.0499 0.402808 -0.125468
13.2754 0.420674 -0.0895622
13.5048 0.416785 -0.0600159
13.7381 0.416774 -0.064553
13.9755 0.41782 -0.105936
14.217 0.40987 -0.0652688
14.4626 0.4341 -0.0864762
14.7125 0.421616 -0.0791814
14.9668 0.413947 -0.111896
15.2254 0.411459 -0.0903154
15.4884 0.412736 -0.0871451
15.7561 0.403333 -0.0962033
16.0283 0.414943 -0.0739809
16.3053 0.419657 -0.0847732
16.587 0.41924 -0.0763183
16.8736 0.41583 -0.0511841
17.1651 0.411761 -0.0840453
17.4617 0.418746 -0.0963488
17.7634 0.411542 -0.0725791
18.0704 0.413899 -0.0924987
18.3826 0.429346 -0.0965729
18.7002 0.39507 -0.013822
19.0234 0.375796 -0.0823949
19.3521 0.449254 -0.0533388
19.6864 0.416445 -0.130329
20.0266 0.456087 -0.0384689
20.3726 0.383382 -0.08227
20.7246 0.382544 -0.129727
21.0827 0.393975 -0.23903
21.447 0.396791 -0.121105
21.8176 0.469859 -0.144752
22.1946 0.4259 -0.145199
22.5781 0.40066 -0.15843
22.9682 0.433695 -0.119112
23.365 0.452819 -0.119672
23.7688 0.433807 -0.147937
24.1795 0.393565 -0.0924656
24.5973 0.40129 -0.121053
25.0223 0.429061 -0.151651
25.4546 0.451234 -0.174369
25.8944 0.422311 -0.102678
26.3419 0.427542 -0.180082
26.797 0.413958 -0.156963
27.26 0.41505 -0.135682
27.7311 0.420445 -0.166755
28.2102 0.407799 -0.149551
28.6976 0.410608 -0.175013
29.1935 0.412004 -0.16476
29.6979 0.434567 -0.125674
30.2111 0.430801 -0.179918
30.7331 0.437358 -0.169564
31.2641 0.429323 -0.173695
31.8043 0.422595 -0.155145
32.3539 0.432557 -0.173286
32.9129 0.433052 -0.199859
33.4816 0.427387 -0.164406
34.0601 0.425623 -0.220923
34.6486 0.429091 -0.181601
35.2473 0.43431 -0.221477
35.8563 0.435351 -0.220657
36.4759 0.429167 -0.232185
37.1061 0.42394 -0.195525
37.7473 0.41917 -0.227253
38.3995 0.434592 -0.22181
39.063 0.426465 -0.221882
39.738 0.434427 -0.250798
40.4246 0.429688 -0.229075
41.1231 0.447242 -0.253297
41.8336 0.450466 -0.252409
42.5565 0.440583 -0.238677
43.2918 0.449955 -0.260977
44.0398 0.437044 -0.263613
44.8008 0.432334 -0.244987
45.5749 0.447183 -0.309799
46.3623 0.43785 -0.295548
47.1634 0.43849 -0.320206
47.9783 0.44194 -0.270732
48.8073 0.440351 -0.288594
49.6507 0.430234 -0.328989
50.5086 0.440214 -0.310701
51.3813 0.44336 -0.316654
52.2691 0.431282 -0.310051
53.1722 0.442222 -0.352588
54.091 0.452482 -0.322959
55.0256 0.43278 -0.350417
55.9764 0.467048 -0.368929
56.9436 0.465565 -0.310681
57.9275 0.464132 -0.335302
58.9284 0.472476 -0.465937
59.9466 0.422686 -0.404363
60.9824 0.443282 -0.38209
62.0361 0.455069 -0.41284
63.108 0.445842 -0.421106
64.1985 0.44125 -0.409363
65.3077 0.455736 -0.442381
66.4362 0.456642 -0.434312
67.5841 0.462235 -0.453488
68.7519 0.448764 -0.488291
69.9398 0.458977 -0.481712
71.1483 0.44157 -0.492828
72.3776 0.434046 -0.513688
73.6282 0.444239 -0.557996
74.9004 0.445391 -0.51977
76.1946 0.454713 -0.541295
77.5111 0.448378 -0.536324
78.8504 0.461395 -0.540967
80.2129 0.460499 -0.599928
81.5988 0.449611 -0.629379
83.0088 0.448395 -0.601377
84.4431 0.449082 -0.658383
85.9021 0.438926 -0.662116
87.3864 0.428591 -0.606739
88.8963 0.479758 -0.587314
90.4324 0.467266 -0.635465
91.9949 0.468648 -0.675525
93.5845 0.460162 -0.710777
95.2015 0.457137 -0.705849
96.8464 0.446237 -0.756304
98.5198 0.450793 -0.727955
100.222 0.458878 -0.694746
101.954 0.457348 -0.726452
103.715 0.464511 -0.758355
105.508 0.459431 -0.854221
107.331 0.462571 -0.834085
109.185 0.465969 -0.82582
111.072 0.470198 -0.79748
112.991 0.474099 -0.801209
114.943 0.479259 -0.949266
116.929 0.475535 -1.00691
118.95 0.450791 -0.916723
121.005 0.454934 -0.954905
123.096 0.463118 -0.89475
125.223 0.487259 -0.924323
127.386 0.490524 -0.964951
129.587 0.467859 -1.07351
131.827 0.453653 -1.04966
134.104 0.471276 -1.04524
136.422 0.465342 -1.135
138.779 0.469928 -1.18257
141.177 0.466613 -1.12291
143.616 0.465706 -1.19066
146.098 0.455398 -1.20746
148.622 0.455022 -1.14393
151.19 0.458259 -1.19585
153.802 0.417918 -1.30871
156.46 0.438344 -1.23329
159.163 0.454572 -1.21359
161.913 0.473251 -1.29258
164.711 0.445268 -1.33277
167.557 0.440694 -1.35918
170.452 0.447355 -1.35016
173.397 0.473236 -1.42537
176.393 0.425878 -1.46533
179.441 0.417416 -1.40196
182.542 0.434037 -1.42018
185.696 0.456689 -1.43254
188.904 0.443337 -1.50716
192.169 0.397275 -1.58067
195.489 0.436899 -1.46631
198.867 0.444614 -1.59474
202.303 0.437167 -1.56651
205.798 0.433821 -1.55218
209.354 0.454065 -1.6125
212.972 0.416455 -1.71326
216.652 0.423666 -1.65259
220.395 0.420667 -1.87415
224.203 0.431546 -1.78521
228.077 0.420311 -1.78616
232.018 0.442306 -1.84746
236.027 0.418622 -1.8584
240.105 0.411966 -1.87732
244.254 0.382083 -2.01762
248.474 0.39493 -2.04459
252.768 0.411012 -1.99117
257.135 0.408698 -2.0717
261.578 0.392852 -2.16739
266.098 0.413454 -2.06979
270.696 0.399983 -2.23033
275.373 0.384729 -2.20718
280.131 0.391573 -2.27279
284.971 0.346445 -2.33599
289.895 0.38646 -2.39745
294.904 0.386437 -2.46531
300 0.37373 -2.48715
